digraph Tree {
node [shape=box, style="filled, rounded", color="black", fontname="helvetica"] ;
edge [fontname="helvetica"] ;
0 [label=<eleg_variation &le; 0.53<br/>gini = 0.5<br/>samples = 277<br/>value = [227, 222]<br/>class = human>, fillcolor="#fefcfb"] ;
1 [label=<gini = 0.105<br/>samples = 123<br/>value = [186, 11]<br/>class = human>, fillcolor="#e78845"] ;
0 -> 1 [labeldistance=2.5, labelangle=45, headlabel="True"] ;
2 [label=<bold &le; 0.011<br/>gini = 0.272<br/>samples = 154<br/>value = [41, 211]<br/>class = AI>, fillcolor="#5fb0ea"] ;
0 -> 2 [labeldistance=2.5, labelangle=-45, headlabel="False"] ;
3 [label=<grammar &le; 0.082<br/>gini = 0.229<br/>samples = 151<br/>value = [32, 211]<br/>class = AI>, fillcolor="#57ace9"] ;
2 -> 3 ;
5 [label=<grammar &le; 0.073<br/>gini = 0.064<br/>samples = 23<br/>value = [29, 1]<br/>class = human>, fillcolor="#e68540"] ;
3 -> 5 ;
7 [label=<gini = 0.0<br/>samples = 21<br/>value = [28, 0]<br/>class = human>, fillcolor="#e58139"] ;
5 -> 7 ;
8 [label=<gini = 0.5<br/>samples = 2<br/>value = [1, 1]<br/>class = human>, fillcolor="#ffffff"] ;
5 -> 8 ;
6 [label=<gini = 0.028<br/>samples = 128<br/>value = [3, 210]<br/>class = AI>, fillcolor="#3c9ee5"] ;
3 -> 6 ;
4 [label=<gini = 0.0<br/>samples = 3<br/>value = [9, 0]<br/>class = human>, fillcolor="#e58139"] ;
2 -> 4 ;
}