digraph Tree {
node [shape=box, style="filled, rounded", color="black", fontname="helvetica"] ;
edge [fontname="helvetica"] ;
0 [label=<grammar &le; 0.073<br/>gini = 0.5<br/>samples = 277<br/>value = [227, 222]<br/>class = human>, fillcolor="#fefcfb"] ;
1 [label=<gini = 0.0<br/>samples = 139<br/>value = [221, 0]<br/>class = human>, fillcolor="#e58139"] ;
0 -> 1 [labeldistance=2.5, labelangle=45, headlabel="True"] ;
2 [label=<basic_copulative &le; 0.03<br/>gini = 0.051<br/>samples = 138<br/>value = [6, 222]<br/>class = AI>, fillcolor="#3ea0e6"] ;
0 -> 2 [labeldistance=2.5, labelangle=-45, headlabel="False"] ;
3 [label=<eleg_variation &le; 0.707<br/>gini = 0.032<br/>samples = 115<br/>value = [3.0, 184.0]<br/>class = AI>, fillcolor="#3c9fe5"] ;
2 -> 3 ;
5 [label=<gini = 0.021<br/>samples = 114<br/>value = [2, 184]<br/>class = AI>, fillcolor="#3b9ee5"] ;
3 -> 5 ;
6 [label=<gini = 0.0<br/>samples = 1<br/>value = [1, 0]<br/>class = human>, fillcolor="#e58139"] ;
3 -> 6 ;
4 [label=<neg_parallelism &le; 0.167<br/>gini = 0.136<br/>samples = 23<br/>value = [3, 38]<br/>class = AI>, fillcolor="#49a5e7"] ;
2 -> 4 ;
7 [label=<gini = 0.469<br/>samples = 5<br/>value = [3, 5]<br/>class = AI>, fillcolor="#b0d8f5"] ;
4 -> 7 ;
8 [label=<gini = 0.0<br/>samples = 18<br/>value = [0, 33]<br/>class = AI>, fillcolor="#399de5"] ;
4 -> 8 ;
}